monday 0.21811 -0.18662 -0.29976 0.27558 0.032055 -0.23634 -0.14933 -0.21461 0.028434 -1.453 -0.25088 -0.36224 -0.35192 0.32962 0.21073 0.54532 0.067065 0.39554 -0.035537 -0.29455 0.077989 -0.35378 0.41505 -0.31292 -0.012654 0.11866 0.46191 -0.13877 -0.084786 -0.027553 0.0075584 0.19973 0.3698 0.67474 -1.3801 -0.14872 0.13363 0.32751 -0.24285 -0.024743 0.15855 0.4452 0.15603 0.61135 -0.085985 0.070878 -0.15755 0.039618 -0.16755 -0.15731 -0.051751 -0.065159 -0.25866 -0.15934 0.021408 0.42593 -0.10476 0.25649 0.038735 -0.48438 -0.1221 -0.074988 0.18645 -0.53065 -0.32066 -0.78155 0.014301 -0.087293 -0.26452 -0.10905 0.068646 0.096666 0.23447 -0.18621 0.1931 0.24431 -0.039362 0.050691 0.23591 0.49815 0.04493 -0.304 -0.3929 0.55841 0.11127 0.061962 -0.59646 -0.27568 0.10135 0.15447 -0.3596 -0.42257 -0.50202 -0.032193 -0.17911 -0.0044902 -0.36036 -0.089932 -0.43203 -0.29322 0.30921 0.28145 -0.12075 0.32207 0.52394 0.17353 0.44701 -0.067872 0.043911 0.29502 -0.43493 0.035773 -0.13022 0.16351 0.57385 0.64254 -0.035394 -0.23503 0.22452 -0.74127 -0.22587 -0.56161 -0.17281 -0.31167 -0.44199 0.40471 -0.014396 -0.21107 -0.13673 0.0034861 -0.13608 0.36061 -0.082631 0.21257 -0.1559 -0.14475 0.006848 -0.016103 0.46398 0.1616 0.018389 -0.075544 0.32131 -0.043177 -0.69053 0.059353 0.18617 -0.19241 -0.19242 0.10269 0.80868 -0.13723 0.2765 0.2139 0.47029 -0.034787 -0.01595 -0.11713 0.23533 -0.075321 0.18956 -0.13767 -0.25222 -0.011199 0.18933 0.53102 0.1038 -0.06095 -0.033877 -0.32607 -0.018569 -0.060176 -0.33637 -0.057887 0.057007 0.054064 0.21379 0.28711 0.12911 0.73398 0.27028 0.55734 0.17722 0.0099084 -0.31609 0.4041 -0.55575 -0.068783 -0.48863 0.024922 -0.090432 -0.077089 -0.16576 0.19283 0.11054 -0.1248 0.20032 0.042145 -0.21879 0.23469 0.43901 -0.12139 -0.45412 0.13914 -0.41487 -0.054844 -0.40559 -0.47363 0.060957 0.07441 0.12588 0.22702 -0.18333 -0.22469 -0.030742 -0.079423 0.1764 -0.23265 0.31313 -0.075793 1.3792 -0.032335 -0.11708 0.40769 -0.26732 0.23083 -0.086057 -0.39141 0.020307 0.044031 0.15779 -0.0083034 0.10069 -0.24081 1.0427 -0.075595 0.10491 0.11393 0.51449 -0.21741 0.041168 -0.040797 -0.045233 0.080298 0.6027 -0.088604 0.2111 -0.44271 0.044691 0.33114 0.20784 0.26033 0.32932 -0.13664 0.22055 -0.11929 -0.094157 -0.21194 -0.038597 0.35289 0.18437 0.23339 -0.042435 0.12363 0.4691 0.16949 -0.049895 0.020554 -0.30616 -0.63274 -0.063698 -0.30824 0.14653 0.046616 0.014699 0.36711 -2.2426 0.0040067 0.74925 0.082936 -0.16657 -0.046147 0.24645 -0.29625 -0.061674 -0.5269 -0.12401 0.078185 -0.12765 -0.15082 0.03144 -0.35976 -0.022703 0.24257 -0.077047 0.82902 -0.19574 -0.26046 -0.57544 0.1902
tuesday 0.24891 -0.10269 -0.31892 0.20388 -0.023967 -0.14587 -0.10807 -0.38744 0.0023796 -1.4407 -0.21751 -0.45073 -0.43581 0.25793 0.15314 0.66466 -0.068115 0.39115 -0.03534 -0.28066 0.03303 -0.36654 0.4484 -0.27454 -0.14105 0.11225 0.50298 -0.080454 -0.089942 -0.036244 0.067963 0.16357 0.34788 0.66029 -1.4276 -0.1123 0.1942 0.28709 -0.19585 0.018982 0.21731 0.4301 0.13167 0.66619 -0.10427 0.029018 -0.27041 0.037646 -0.17865 -0.1311 -0.12702 0.034864 -0.26978 -0.14212 -0.018555 0.4389 -0.28134 0.20122 0.084664 -0.42161 -0.071135 -0.066543 0.19969 -0.52578 -0.26179 -0.72741 0.073911 -0.069336 -0.26176 -0.17097 -0.059684 0.06731 0.21655 -0.19421 0.21105 0.2017 -0.077503 0.042306 0.18055 0.48039 0.013147 -0.22721 -0.39391 0.49416 0.13574 0.0090804 -0.66508 -0.23892 0.20154 0.11266 -0.31001 -0.47654 -0.50347 0.037909 -0.15715 0.0070826 -0.38872 0.0022148 -0.47237 -0.3383 0.36712 0.24101 -0.1348 0.21762 0.49973 0.19321 0.33568 -0.074261 0.019328 0.34267 -0.41262 0.013483 -0.17294 0.053002 0.56427 0.64347 -0.01039 -0.23269 0.19719 -0.79137 -0.20944 -0.53164 -0.22529 -0.31423 -0.47851 0.38261 -0.06953 -0.29827 -0.091486 0.032887 -0.16023 0.35857 -0.11064 0.30256 -0.11202 -0.14686 0.057594 0.031261 0.48812 0.2984 0.034628 -0.13114 0.29707 -0.047215 -0.73908 0.079605 0.15348 -0.21692 -0.27439 0.077612 0.75364 -0.14149 0.16518 0.14899 0.34372 -0.03587 -0.11162 -0.15919 0.11389 -0.14174 0.20042 -0.16679 -0.26024 0.019007 0.25038 0.43098 0.11973 -0.15098 0.0069169 -0.20597 -0.0062743 -0.10941 -0.37643 -0.097179 0.024681 -0.023157 0.24152 0.17307 0.14028 0.86777 0.2589 0.56747 0.17592 0.014246 -0.27555 0.41972 -0.55541 -0.097959 -0.38323 0.087188 -0.097783 -0.084408 -0.21433 0.25449 0.11106 -0.1446 0.21326 0.031061 -0.33617 0.18227 0.46365 -0.12692 -0.35901 0.13932 -0.41709 -0.13478 -0.41395 -0.51374 -0.026726 0.098204 0.065479 0.26618 -0.17156 -0.26321 0.018098 0.063427 0.10379 -0.25454 0.29476 -0.1399 1.2973 0.019291 -0.093844 0.38413 -0.32622 0.29247 -0.19963 -0.34778 -0.099958 0.033279 0.08341 0.047052 0.07082 -0.21433 1.112 -0.13889 0.085495 0.23615 0.51109 -0.14424 0.077852 -0.009489 -0.023324 0.079079 0.64283 -0.0084704 0.24034 -0.41232 0.081027 0.32696 0.13189 0.27665 0.24943 -0.10346 0.26858 -0.15185 -0.13586 -0.30383 -0.0050096 0.3964 0.19122 0.24281 -0.079561 0.18375 0.37461 0.13044 -0.046206 0.10705 -0.34323 -0.60651 0.051291 -0.36788 0.011796 0.10213 -0.031072 0.36147 -2.2511 0.053374 0.81347 -0.018695 -0.21914 -0.017225 0.2596 -0.30483 -0.039276 -0.57058 -0.16373 0.12142 -0.0806 -0.095715 -0.001962 -0.28514 -0.11347 0.308 -0.14918 0.87918 -0.25159 -0.32736 -0.64256 0.21711
wednesday 0.22179 -0.054404 -0.36459 0.25452 0.028816 -0.169 -0.16837 -0.3053 0.0021946 -1.5107 -0.2248 -0.43936 -0.4018 0.19197 0.09167 0.74012 0.012238 0.40162 -0.03177 -0.35406 0.06989 -0.39453 0.43346 -0.23586 -0.13657 0.072138 0.48379 -0.079584 -0.078069 0.013788 0.086951 0.13267 0.3592 0.69408 -1.4565 -0.16151 0.19326 0.34539 -0.20266 -0.027325 0.21037 0.41874 0.1966 0.70278 -0.08791 -0.0089711 -0.23349 0.088747 -0.19681 -0.11271 -0.079733 -0.0036701 -0.30924 -0.036455 -0.0047937 0.42911 -0.23547 0.096428 0.08898 -0.42482 -0.16101 -0.11559 0.2277 -0.54753 -0.35447 -0.71189 0.03595 -0.064587 -0.22269 -0.24532 0.042282 0.18684 0.27886 -0.21236 0.24029 0.2777 -0.091225 0.042328 0.17739 0.50462 0.082625 -0.26952 -0.41636 0.4909 0.12549 -0.035842 -0.56764 -0.2309 0.20453 0.1091 -0.2659 -0.5077 -0.49737 -0.0035841 -0.13411 0.063078 -0.31388 -0.037512 -0.45868 -0.3935 0.35197 0.25708 -0.10919 0.30156 0.48012 0.20887 0.37461 -0.08374 0.059155 0.33407 -0.39225 0.05801 -0.13775 0.061077 0.51144 0.63788 -0.0381 -0.24682 0.25065 -0.77649 -0.21803 -0.54241 -0.18329 -0.27193 -0.43961 0.39268 -0.15731 -0.33287 -0.073964 0.023927 -0.13408 0.38813 -0.089653 0.30171 -0.10188 -0.046528 0.080503 -0.021091 0.4865 0.31851 0.011636 -0.1639 0.2784 -0.092999 -0.69583 0.057586 0.19187 -0.17213 -0.30715 -0.042797 0.70732 -0.12491 0.12173 0.13362 0.30116 -0.10525 -0.10071 -0.11724 0.15821 -0.16345 0.2076 -0.11592 -0.20566 -0.015686 0.20659 0.44726 0.10616 -0.10978 0.10621 -0.26248 -0.050155 -0.14637 -0.32851 -0.05545 0.08221 0.012919 0.14528 0.24587 0.063101 0.91606 0.29011 0.48023 0.16073 0.022923 -0.35645 0.41382 -0.62142 -0.1777 -0.38777 0.13172 -0.019223 0.0002913 -0.15497 0.2562 0.16977 -0.13815 0.22999 -0.014292 -0.37829 0.22959 0.49622 -0.16871 -0.40242 0.09304 -0.44606 -0.16011 -0.43646 -0.44836 -0.062392 0.075851 0.0086478 0.25199 -0.23514 -0.13148 0.066101 -0.0059072 0.1503 -0.24468 0.26411 -0.13815 1.3085 -0.022693 -0.15983 0.37407 -0.35396 0.29722 -0.10023 -0.29001 -0.079054 0.085098 0.094121 0.098323 0.064402 -0.25678 1.0959 -0.13692 0.13591 0.27182 0.53453 -0.060532 0.12738 -0.01981 -0.052901 0.070959 0.67451 0.01721 0.23945 -0.49987 0.071479 0.40453 0.12568 0.27434 0.34666 -0.09092 0.26783 -0.085169 -0.1307 -0.35114 -0.11271 0.41364 0.23099 0.30046 -0.043733 0.16848 0.35701 0.1293 -0.063823 0.045564 -0.31936 -0.61182 0.080656 -0.33351 0.013019 0.098365 -0.0062926 0.37582 -2.2148 -0.018659 0.83339 -0.028407 -0.26343 0.10025 0.29614 -0.30463 -0.060581 -0.5637 -0.13338 0.094715 -0.091013 -0.11208 -0.043102 -0.27826 -0.20996 0.34124 -0.10755 0.85313 -0.19665 -0.31978 -0.66384 0.24125
thursday 0.22848 -0.1863 -0.28986 0.22083 -0.022839 -0.20163 -0.11356 -0.25248 0.061397 -1.4746 -0.20336 -0.40811 -0.39272 0.20428 0.090546 0.58059 0.017231 0.41688 0.034034 -0.23235 0.008964 -0.45849 0.42998 -0.27959 -0.1966 0.098219 0.50524 -0.025358 -0.074749 -0.062633 0.036588 0.15806 0.36536 0.67557 -1.4015 -0.18906 0.14192 0.27562 -0.21013 0.074269 0.148 0.37935 0.13888 0.64771 -0.066596 0.054457 -0.25143 0.018595 -0.25545 -0.14733 -0.0093286 0.075056 -0.20765 -0.048338 0.003589 0.44386 -0.16496 0.18058 0.17332 -0.5254 -0.12709 -0.089934 0.28666 -0.42372 -0.37505 -0.71322 0.073356 -0.066084 -0.31483 -0.21598 0.080188 0.048589 0.25724 -0.25862 0.27411 0.2509 -0.11095 -0.051411 0.17722 0.46456 0.059451 -0.18405 -0.395 0.55536 0.18908 -0.00014464 -0.6368 -0.22184 0.20294 0.082241 -0.26549 -0.52913 -0.51267 0.017833 -0.094293 0.053312 -0.41449 -0.00094473 -0.5475 -0.37917 0.26507 0.29225 -0.16879 0.27473 0.53386 0.08664 0.33841 -0.091585 -0.10298 0.23946 -0.50295 0.062533 -0.13788 0.037088 0.52815 0.57944 0.024495 -0.21473 0.19445 -0.74901 -0.2389 -0.45912 -0.14359 -0.29547 -0.5013 0.37343 -0.053148 -0.2523 -0.1192 0.084972 -0.11883 0.39276 -0.11342 0.25242 -0.22345 -0.020229 0.044853 0.019656 0.50283 0.30233 -0.029798 -0.13758 0.3302 0.024011 -0.72253 0.054393 0.2168 -0.18815 -0.21041 0.023271 0.73928 -0.089372 0.20022 0.15996 0.32837 -0.040882 -0.19292 -0.15994 0.18847 -0.092179 0.14774 -0.16959 -0.26602 -0.037388 0.086193 0.45966 0.028026 -0.085477 0.030908 -0.35114 -0.037465 -0.15207 -0.29792 -0.037531 -0.051022 0.066853 0.14382 0.22291 0.12204 0.86641 0.2214 0.52578 0.19098 -0.037675 -0.26121 0.37397 -0.57534 -0.10487 -0.40029 0.073237 -0.10952 -0.061765 -0.22514 0.26482 0.10341 -0.1455 0.21647 0.056742 -0.33233 0.27836 0.49379 -0.11581 -0.40597 0.087261 -0.44979 -0.032943 -0.48226 -0.40939 0.0072647 0.14922 0.12168 0.36713 -0.2006 -0.22754 -0.081961 0.0022892 0.14031 -0.2706 0.40172 -0.1643 1.3753 -0.045668 -0.13809 0.37058 -0.36092 0.25831 -0.1656 -0.34231 0.0021436 0.097843 0.12473 0.051033 0.14482 -0.20167 1.0294 -0.15099 0.078632 0.24684 0.50348 -0.13573 0.039558 -0.030211 -0.046901 0.089062 0.5777 -0.018745 0.20247 -0.43877 0.030627 0.27962 0.11888 0.30394 0.33621 -0.15959 0.32631 -0.1063 -0.064677 -0.27369 -0.11474 0.42034 0.25357 0.18297 -0.12479 0.13318 0.35731 0.11194 -0.059369 0.067696 -0.4003 -0.71778 0.070867 -0.3235 0.081792 0.21988 0.11373 0.32523 -2.1899 -0.0065016 0.77106 0.0070079 -0.23965 -0.014323 0.25042 -0.26793 -0.17408 -0.54954 -0.11794 0.041028 -0.1614 -0.06682 0.042213 -0.33626 -0.13352 0.36416 -0.097324 0.87432 -0.20638 -0.26415 -0.61516 0.19713
friday 0.20283 -0.22845 -0.33061 0.25058 0.047943 -0.16453 -0.084213 -0.16797 0.1062 -1.3609 -0.19623 -0.39243 -0.34456 0.27005 0.035765 0.51238 0.046609 0.36143 -0.026413 -0.25646 0.02397 -0.4742 0.48021 -0.27428 -0.086622 0.082717 0.51311 -0.0027435 0.0093213 0.0055334 -0.09412 0.19492 0.32491 0.64481 -1.4903 -0.23622 0.15579 0.26859 -0.34401 0.09793 0.07329 0.45816 0.026217 0.59826 -0.12526 0.084868 -0.13021 0.030221 -0.20624 -0.12058 0.0094157 0.090061 -0.27006 -0.016331 0.00030346 0.47672 -0.10725 0.22121 0.18164 -0.43811 -0.050514 -0.092568 0.26054 -0.40161 -0.33222 -0.76801 0.10729 -0.09105 -0.16979 -0.11913 -0.026906 0.10254 0.13424 -0.25706 0.13664 0.20151 -0.19564 0.03882 0.2087 0.37534 0.086346 -0.20267 -0.31716 0.58441 0.093373 0.087174 -0.58699 -0.2514 0.21467 0.1052 -0.24838 -0.4345 -0.43572 -0.1155 -0.1149 0.065736 -0.37671 0.025075 -0.64336 -0.32677 0.2906 0.19152 -0.14723 0.27905 0.55328 0.1002 0.35912 0.026781 -0.040118 0.12964 -0.48096 0.021144 -0.19118 0.034987 0.62039 0.55818 0.059636 -0.15765 0.28618 -0.83815 -0.17412 -0.51634 -0.15914 -0.3026 -0.46126 0.3343 0.031148 -0.29044 -0.13858 0.099546 -0.067214 0.43277 0.044157 0.064658 -0.1773 -0.085183 -0.047072 -0.058658 0.47087 0.27408 -0.03634 -0.023558 0.30646 -0.088629 -0.79252 0.080481 0.13004 -0.23875 -0.23799 -0.024627 0.76115 -0.093265 0.16357 0.21386 0.51987 -0.093092 -0.1439 -0.21332 0.12572 -0.12069 0.15388 -0.2263 -0.32403 -0.068095 0.00085058 0.53129 0.045617 -0.056607 0.11638 -0.41368 -0.043153 -0.168 -0.26937 -0.049242 0.060984 0.075544 0.22006 0.3323 -0.00063951 0.80325 0.28644 0.6614 0.17101 -0.17606 -0.22593 0.41666 -0.48492 -0.23198 -0.40614 0.0055049 -0.098071 -0.14123 -0.17617 0.38101 0.02089 -0.1968 0.16732 0.014569 -0.16958 0.11468 0.50176 -0.20383 -0.42996 0.10644 -0.42094 0.016493 -0.57906 -0.44042 -0.028795 0.16372 -0.0043025 0.34784 -0.19712 -0.24791 -0.020626 -0.060351 0.17846 -0.26639 0.4112 -0.049664 1.3244 -0.070197 -0.11216 0.27325 -0.38716 0.16 -0.13599 -0.35312 0.039108 0.17882 0.15429 -0.047748 0.10539 -0.25451 1.0696 -0.049826 0.12455 0.20025 0.44422 0.017153 0.01801 0.037669 -0.043427 0.055357 0.65654 0.011067 0.21651 -0.40454 0.12946 0.27943 0.14167 0.18208 0.32836 -0.12276 0.1938 -0.13043 0.035734 -0.23638 -0.036543 0.48323 0.16212 0.28843 -0.1272 0.11625 0.27471 0.14033 -0.11467 0.075449 -0.36886 -0.76121 0.10158 -0.29687 0.20447 0.2216 0.052876 0.34948 -2.21 0.039608 0.74637 0.14101 -0.1825 0.027392 0.24169 -0.26517 -0.20553 -0.57266 -0.18072 0.0092987 -0.18193 -0.10596 -0.028657 -0.28344 -0.17119 0.28211 -0.1578 0.79703 -0.15784 -0.27393 -0.54361 0.133
saturday 0.17015 0.25273 -0.2255 0.13639 -0.17897 -0.073514 0.0376 0.05338 0.068511 -0.85258 0.069401 -0.373 -0.25872 0.19209 0.042546 0.5245 -0.021208 0.60183 -0.011202 -0.092587 0.21574 -0.53472 0.10926 -0.24978 -0.17129 0.20633 0.4115 -0.062664 -0.13944 -0.13235 0.12341 -0.023096 0.33259 0.58657 -1.345 -0.22893 0.18424 0.33093 -0.32641 0.010957 0.22528 0.17633 0.13471 0.27053 -0.17826 0.092582 0.24436 0.010911 -0.1813 -0.14645 -0.08051 0.064859 -0.151 -0.12807 -0.28896 0.58542 -0.010848 -0.074023 0.1857 -0.18688 -0.12738 -0.0113 -0.017433 -0.22249 -0.3239 -0.67809 0.3095 0.13576 -0.093918 -0.33218 0.014693 0.34802 0.15829 -0.15197 -0.048676 0.27582 -0.17903 0.01522 0.18172 0.37124 0.028606 -0.11386 -0.31717 0.58034 -0.25214 -0.21383 -0.66006 -0.42668 0.52007 0.22631 -0.17451 -0.20785 -0.07713 -0.14328 -0.18932 -0.085703 -0.095314 -0.18914 -0.58896 -0.40831 0.35922 0.24656 0.0030673 0.31259 0.61932 0.40773 0.42074 -0.1359 0.083464 -0.04019 -0.29407 -0.22388 0.045328 0.20884 0.45075 0.45314 -0.19323 -0.026892 0.50428 -0.68109 -0.15945 -0.25305 0.090319 -0.19083 -0.48006 0.33822 -0.14415 -0.31626 -0.044173 0.10906 -0.097571 0.52733 0.10317 0.10065 -0.30604 -0.059748 -0.20339 -0.36512 0.4097 0.36523 -0.21433 0.0848 -0.079773 -0.11979 -0.50567 0.13026 0.076335 -0.08724 -0.37563 0.15954 0.92484 -0.024733 0.10297 0.089552 0.58117 -0.058243 0.1978 0.13736 0.12023 -0.031109 0.10043 -0.27734 -0.16899 -0.31197 -0.059911 0.43982 -0.0052721 -0.37804 0.14075 -0.52705 0.0073207 -0.015197 -0.26726 -0.26881 0.10231 0.11972 0.15058 0.39959 0.036628 0.61007 0.2873 0.57236 0.39033 -0.14961 -0.086003 0.59469 -0.5303 -0.26877 -0.58026 -0.049338 -0.065913 0.21234 0.014709 0.25591 0.33254 -0.060532 0.2747 0.0071994 -0.16368 0.33963 0.8876 -0.16218 -0.45954 -0.080601 -0.069426 -0.4234 -0.34773 -0.61225 -0.15517 0.04321 -0.036477 0.32807 -0.16569 -0.10711 0.17811 -0.33709 -0.0040496 -0.71901 0.49869 -0.17293 1.2617 -0.12556 -0.0019251 0.32848 -0.35341 0.18546 0.29905 -0.40739 -0.02775 0.25549 0.14823 0.17408 0.35577 -0.56064 1.2293 -0.28658 0.15634 0.1784 0.50446 -0.069802 -0.00056198 -0.043721 -0.12673 0.094299 0.79544 0.039673 -0.00029178 0.087613 0.23496 0.38258 0.027973 0.015703 0.15809 -0.028967 0.46697 -0.071511 0.22307 -0.18526 -0.066012 0.33409 0.19807 0.13761 0.13107 0.29367 0.076849 -0.13194 -0.015168 -0.24305 0.12441 -0.60172 0.021645 -0.1648 0.19693 0.1598 0.17385 0.18917 -2.5032 0.16843 0.60252 0.30915 -0.060292 0.03101 0.49835 -0.0042386 -0.21455 -0.37529 -0.36408 0.074013 -0.17714 0.069104 -0.30585 -0.104 -0.12842 0.17576 -0.032529 0.4732 -0.00076636 -0.33305 -0.65944 0.092305
sunday 0.080226 0.12737 -0.14312 0.22288 -0.22367 -0.1141 -0.045303 0.028988 -0.036847 -0.96226 0.091978 -0.19067 -0.068613 0.22368 0.27402 0.5474 -0.12593 0.56245 -0.014827 -0.15535 0.16828 -0.59398 0.089404 -0.33408 -0.067466 -0.021859 0.33213 0.090294 -0.15112 -0.1997 0.040152 0.034056 0.27067 0.57608 -1.522 -0.20171 0.081906 0.26662 -0.304 0.085508 0.21813 0.26046 0.24974 0.11273 -0.2574 0.11913 0.30533 0.01139 -0.23501 -0.083045 0.018821 0.025827 -0.084135 0.023554 -0.23713 0.49462 0.032241 -0.078873 0.2167 -0.18541 -0.15104 0.063338 0.11729 -0.17788 -0.34219 -0.68552 0.3978 0.042104 0.044774 -0.26269 0.054141 0.076898 0.16915 -0.10339 -0.15563 0.26022 -0.10354 0.06517 0.012187 0.30074 -0.040981 -0.21038 -0.42154 0.73314 -0.14972 -0.088901 -0.72531 -0.20526 0.47737 0.2966 -0.22001 -0.37429 -0.23581 -0.13207 -0.21047 -0.097034 -0.069957 -0.12271 -0.59522 -0.35717 0.3683 0.33519 0.026385 0.31747 0.6329 0.54644 0.37958 -0.067675 0.038144 -0.030398 -0.27472 -0.13935 -0.010643 0.0090993 0.31261 0.31634 -0.16817 -0.10701 0.43126 -0.76809 -0.20878 -0.28735 0.18837 -0.16581 -0.34741 0.3035 -0.032351 -0.28956 -0.18479 0.07081 -0.00056177 0.33956 0.165 0.389 -0.28522 0.01858 -0.20886 -0.25227 0.41775 0.33215 -0.24561 0.23187 0.043666 -0.090464 -0.50183 0.11522 0.13608 -0.0065607 -0.11273 0.12374 0.77992 0.044053 0.12886 0.020302 0.49975 -0.098006 0.30465 0.11908 0.25411 -0.14754 0.17048 -0.20604 -0.032226 -0.1437 -0.11289 0.45677 -0.047363 -0.28717 -0.034245 -0.60062 0.006219 -0.046897 -0.31965 -0.014641 0.14143 0.13026 0.1467 0.42821 -0.078368 0.63917 0.34303 0.5227 0.35277 0.0092699 0.067812 0.51897 -0.5373 -0.18323 -0.48755 0.068509 -0.11857 0.28638 0.01371 0.24083 0.3722 -0.14577 0.30723 0.036606 -0.20725 0.42598 0.88768 -0.15485 -0.51061 -0.099348 0.16422 -0.38223 -0.27255 -0.55674 -0.18873 0.11847 -0.066515 0.34787 -0.11157 -0.2456 0.073037 -0.35315 0.0039106 -0.7307 0.56379 -0.017985 1.3699 -0.079459 -0.18661 0.34235 -0.17146 0.14469 0.35795 -0.4568 0.16418 0.12416 0.11981 0.0077406 0.37955 -0.47641 1.1066 -0.093417 0.42644 0.056871 0.36307 -0.067684 -0.043779 -0.15915 -0.032036 0.05827 0.71841 -0.08038 0.030715 0.14921 0.25231 0.44098 -0.078268 0.046181 0.10879 -0.016677 0.48179 0.035352 0.31051 -0.34154 -0.1075 0.24113 0.2256 0.033662 0.063145 0.15471 0.1507 -0.12934 0.091715 -0.25953 0.22054 -0.62111 -0.1004 -0.1967 0.25563 0.20282 0.21542 0.1479 -2.3197 0.17394 0.53476 0.20657 -0.027128 -0.044831 0.47131 -0.074296 -0.19242 -0.46027 -0.35856 0.14238 -0.015903 0.051805 -0.54182 -0.054784 -0.075428 0.27443 -0.073088 0.47233 -0.14494 -0.28735 -0.69429 0.024827